Language model created by QuickLM on Sun Sep 16 04:25:41 EDT 2018
Copyright (c) 1996-2010 Carnegie Mellon University and Alexander I. Rudnicky

The model is in standard ARPA format, designed by Doug Paul while he was at MITRE.

The code that was used to produce this language model is available in Open Source.
Please visit http://www.speech.cs.cmu.edu/tools/ for more information

The (fixed) discount mass is 0.5. The backoffs are computed using the ratio method.
This model based on a corpus of 13 sentences and 36 words

\data\
ngram 1=36
ngram 2=77
ngram 3=97

\1-grams:
-1.3332 </s> -0.3010
-1.3332 <s> -0.2535
-2.4472 A -0.2979
-2.1461 ANGRY -0.2430
-2.4472 ARE -0.2932
-1.8451 ARMS -0.2430
-1.3680 BAXTER -0.2268
-1.6690 BE -0.2916
-2.4472 CAN -0.2932
-1.6690 DO -0.2655
-2.1461 HANDS -0.2430
-2.1461 HAPPY -0.2430
-2.4472 HAVE -0.2995
-2.1461 HELLO -0.2621
-1.1047 HEY -0.2621
-2.4472 HOW -0.2995
-2.4472 IS -0.2995
-2.4472 KIND -0.2979
-1.8451 ME -0.2430
-2.1461 MIMIC -0.2948
-2.1461 MIRROR -0.2948
-2.1461 NAME -0.2705
-2.1461 OF -0.2979
-1.3680 RED -0.2061
-2.1461 ROTATE -0.2430
-2.1461 SHAKE -0.2979
-2.1461 SMILE -0.2430
-2.4472 SOFT -0.2979
-2.4472 THING -0.2995
-2.4472 THINGS -0.2916
-2.1461 TUCK -0.2948
-2.1461 UNTUCK -0.2948
-2.1461 UPSET -0.2430
-1.8451 WHAT -0.2868
-1.7482 YOU -0.2836
-2.4472 YOUR -0.2979

\2-grams:
-1.4150 <s> HELLO -0.1761
-0.4150 <s> HEY -0.1761
-1.4150 <s> HOW 0.0000
-1.4150 <s> WHAT -0.2430
-0.3010 A NAME -0.1761
-0.6021 ANGRY </s> -0.3010
-0.6021 ANGRY HEY -0.1761
-0.3010 ARE YOU -0.2553
-0.6021 ARMS </s> -0.3010
-0.6021 ARMS HEY -0.1761
-0.9031 BAXTER BE 0.0000
-1.3802 BAXTER HELLO -0.1761
-1.3802 BAXTER HEY -0.1761
-1.3802 BAXTER MIMIC 0.0000
-1.3802 BAXTER MIRROR 0.0000
-1.3802 BAXTER ROTATE -0.1761
-1.3802 BAXTER SHAKE 0.0000
-1.3802 BAXTER SMILE -0.1761
-1.3802 BAXTER TUCK 0.0000
-1.3802 BAXTER UNTUCK 0.0000
-0.7782 BE ANGRY 0.0000
-0.7782 BE HAPPY 0.0000
-0.7782 BE UPSET 0.0000
-0.3010 CAN YOU -0.1461
-1.0792 DO </s> -0.3010
-0.7782 DO WHAT -0.1761
-0.6021 DO YOU -0.0792
-0.6021 HANDS </s> -0.3010
-0.6021 HANDS HEY -0.1761
-0.6021 HAPPY </s> -0.3010
-0.6021 HAPPY HEY -0.1761
-0.3010 HAVE A 0.0000
-0.6021 HELLO BAXTER -0.2825
-0.6021 HELLO RED -0.2825
-0.6021 HEY BAXTER -0.0348
-0.6021 HEY RED -0.0348
-0.3010 HOW ARE 0.0000
-0.3010 IS YOUR 0.0000
-0.3010 KIND OF -0.1761
-0.6021 ME </s> -0.3010
-0.6021 ME HEY -0.1761
-0.3010 MIMIC ME 0.0000
-0.3010 MIRROR ME 0.0000
-0.6021 NAME </s> -0.3010
-0.6021 NAME DO -0.1761
-0.6021 OF THING 0.0000
-0.6021 OF THINGS 0.0000
-1.3802 RED </s> -0.3010
-0.9031 RED BE 0.0000
-1.3802 RED HEY -0.1761
-1.3802 RED MIMIC 0.0000
-1.3802 RED MIRROR 0.0000
-1.3802 RED ROTATE -0.1761
-1.3802 RED SHAKE 0.0000
-1.3802 RED SMILE -0.1761
-1.3802 RED TUCK 0.0000
-1.3802 RED UNTUCK 0.0000
-0.6021 ROTATE </s> -0.3010
-0.6021 ROTATE HEY -0.1761
-0.3010 SHAKE HANDS 0.0000
-0.6021 SMILE </s> -0.3010
-0.6021 SMILE HEY -0.1761
-0.3010 SOFT OF -0.1761
-0.3010 THING CAN 0.0000
-0.3010 THINGS DO -0.1761
-0.3010 TUCK ARMS 0.0000
-0.3010 UNTUCK ARMS 0.0000
-0.6021 UPSET </s> -0.3010
-0.6021 UPSET HEY -0.1761
-0.9031 WHAT DO -0.1761
-0.9031 WHAT IS 0.0000
-0.9031 WHAT KIND 0.0000
-0.9031 WHAT SOFT 0.0000
-0.5229 YOU DO -0.1761
-1.0000 YOU HAVE 0.0000
-1.0000 YOU WHAT -0.2430
-0.3010 YOUR NAME -0.1761

\3-grams:
-0.3010 <s> HELLO BAXTER
-0.3010 <s> HEY BAXTER
-0.3010 <s> HOW ARE
-0.3010 <s> WHAT KIND
-0.3010 A NAME </s>
-0.3010 ANGRY HEY RED
-0.3010 ARE YOU WHAT
-0.3010 ARMS HEY RED
-0.7782 BAXTER BE ANGRY
-0.7782 BAXTER BE HAPPY
-0.7782 BAXTER BE UPSET
-0.3010 BAXTER HELLO RED
-0.3010 BAXTER HEY RED
-0.3010 BAXTER MIMIC ME
-0.3010 BAXTER MIRROR ME
-0.3010 BAXTER ROTATE HEY
-0.3010 BAXTER SHAKE HANDS
-0.3010 BAXTER SMILE HEY
-0.3010 BAXTER TUCK ARMS
-0.3010 BAXTER UNTUCK ARMS
-0.6021 BE ANGRY </s>
-0.6021 BE ANGRY HEY
-0.6021 BE HAPPY </s>
-0.6021 BE HAPPY HEY
-0.6021 BE UPSET </s>
-0.6021 BE UPSET HEY
-0.3010 CAN YOU DO
-0.6021 DO WHAT DO
-0.6021 DO WHAT SOFT
-0.4771 DO YOU DO
-0.7782 DO YOU HAVE
-0.3010 HANDS HEY RED
-0.3010 HAPPY HEY RED
-0.3010 HAVE A NAME
-0.3010 HELLO BAXTER HELLO
-0.3010 HELLO RED HEY
-0.8653 HEY BAXTER BE
-1.3424 HEY BAXTER HEY
-1.3424 HEY BAXTER MIMIC
-1.3424 HEY BAXTER MIRROR
-1.3424 HEY BAXTER ROTATE
-1.3424 HEY BAXTER SHAKE
-1.3424 HEY BAXTER SMILE
-1.3424 HEY BAXTER TUCK
-1.3424 HEY BAXTER UNTUCK
-1.3424 HEY RED </s>
-0.8653 HEY RED BE
-1.3424 HEY RED MIMIC
-1.3424 HEY RED MIRROR
-1.3424 HEY RED ROTATE
-1.3424 HEY RED SHAKE
-1.3424 HEY RED SMILE
-1.3424 HEY RED TUCK
-1.3424 HEY RED UNTUCK
-0.3010 HOW ARE YOU
-0.3010 IS YOUR NAME
-0.3010 KIND OF THING
-0.3010 ME HEY RED
-0.6021 MIMIC ME </s>
-0.6021 MIMIC ME HEY
-0.6021 MIRROR ME </s>
-0.6021 MIRROR ME HEY
-0.3010 NAME DO YOU
-0.3010 OF THING CAN
-0.3010 OF THINGS DO
-0.7782 RED BE ANGRY
-0.7782 RED BE HAPPY
-0.7782 RED BE UPSET
-0.3010 RED HEY BAXTER
-0.3010 RED MIMIC ME
-0.3010 RED MIRROR ME
-0.3010 RED ROTATE </s>
-0.3010 RED SHAKE HANDS
-0.3010 RED SMILE </s>
-0.3010 RED TUCK ARMS
-0.3010 RED UNTUCK ARMS
-0.3010 ROTATE HEY RED
-0.6021 SHAKE HANDS </s>
-0.6021 SHAKE HANDS HEY
-0.3010 SMILE HEY RED
-0.3010 SOFT OF THINGS
-0.3010 THING CAN YOU
-0.3010 THINGS DO YOU
-0.6021 TUCK ARMS </s>
-0.6021 TUCK ARMS HEY
-0.6021 UNTUCK ARMS </s>
-0.6021 UNTUCK ARMS HEY
-0.3010 UPSET HEY RED
-0.3010 WHAT DO YOU
-0.3010 WHAT IS YOUR
-0.3010 WHAT KIND OF
-0.3010 WHAT SOFT OF
-0.7782 YOU DO </s>
-0.4771 YOU DO WHAT
-0.3010 YOU HAVE A
-0.3010 YOU WHAT IS
-0.3010 YOUR NAME DO

\end\
